{"weights": [[0.009121820691471126, 0.27591965400377244, -0.10918906572634995, 0.009028174719496006, 0.06967501598639887, 0.16924914975796687, 0.2723730711644694, -0.12483751090984639, -0.0001970116361679983, 0.11336654460450168, -0.03808787446182222, 0.27916800709896916, 0.10516201092094746, -0.03684318780331235, 0.06681256705285803, 0.12933780244971566, 0.2543722169275377, -0.2573499951174558, -0.03790940044627631, 0.15563093593387578, 0.017445756514182346, 0.03828199377467793, 0.03868286968468089, 0.058558796339123115, 0.10843362306118765, 0.11684644064999658, -0.013360443251594094, -0.2134498114240376, 0.0949436870972336, 0.1433004673996028, -0.03819081674516555, 0.16575551274281608, 0.07217175451433594, 0.06556177354203724, 0.048476455054288506, -0.050526906751087536, 0.24254383172311864, -0.006446065512851585, -0.036989141746363925, 0.03024566784407592, 0.2645485779930524, 0.05114161272048911, -0.009904807700156703, -0.0982646392652687, 0.05565579090134368, 0.06590264872000831, -0.09351183744795534, 0.07368421113767644, 0.024220321890311487, 0.28961787720213444, 0.1447835112901493, -0.14975611228193544, 0.057604841904847055, -0.12481380073077895, -0.12979601156564013, -0.06654312993803245, -0.06795059524853339, -0.059237285020182, 0.03150016554352702, -0.2095115968028994, -0.12555248869803493, -0.07886445904379417, -0.04865878206411069, 0.12020521284204043, 0.09479348539969237, 0.02439473964650013, 0.0923857637154706, -0.030486075762326998, -0.06573126981053415, 0.0032726344091114127, -0.0530882632982912, 0.09154510714203631, -0.213791491168498, 0.3019177266066526, 0.37980469169753506, -0.004627608245841011, -0.0062867823129239666, -0.14478591484077302, -0.06399618370305257, 0.1448188234028245, 0.07725840380260585, 0.09194524900721257, 0.10016403830010445, 0.020667824061510177, 0.21020805263074424, -0.26482754060929237, 0.002151545736444551, -0.5235934397702985, -0.05886235960076224, 0.1732167915669862, 0.11758754389191674, -0.016811846439721594, 0.1122834897726395, 0.05145043049573314, 0.19732338717291661, 0.0925289889467329]], "bias": [-0.9476118991207225], "scaler_mean": [-3.9762696663538617, 9.850498835245768, 5.825696261723836, -6.352555338541666, 10.322824223836262, 22.312364133199058, 7.633683474858602, -5.7139453570048016, -22.52060407002767, 19.342264048258464, -29.1636749903361, -5.581611824035645, 2.401321546236674, -1.4960740089416504, -7.354241879781087, 4.127426862716675, 4.453006569544474, 4.058112915356954, 0.5600407560666402, -15.59319086074829, 6.09181227684021, 10.963734118143718, -10.602595901489257, 6.5281557242075605, -8.087172317504884, 21.838407262166342, -12.184009234110514, -4.928798834482829, -1.0794222831726075, 5.688302230834961, -19.016552925109863, 18.237885856628417, -27.08920644124349, 0.5153752088546752, -14.964481194814047, 10.701110712687175, 34.93893648783366, 6.127369674046834, 2.2842052857081097, 31.133310572306314, -8.591845480600993, -1.134849202632904, 43.7739761352539, -11.575519911448161, -11.065485318501791, -4.4710777759552, -29.150217501322427, 5.962445545196533, 7.4197702248891195, 10.227520497639974, -10.409207185109457, 9.07449909845988, 18.413340187072755, 3.1750654220581054, -14.62799523671468, -11.90943702061971, -10.121310965220134, 20.03672873179118, -15.83132438659668, -0.27665200233459475, 15.537642923990886, 4.129455057779948, -0.9790571411450704, -11.56664654413859, 17.81061013539632, 9.252253850301107, -6.7829850514729815, -16.148169708251952, 4.158117850621541, -0.6285000403722127, 2.999735728899638, 12.59381170272827, 12.800167592366536, -11.735044638315836, 13.850547504425048, 8.009340302149456, 11.024997679392497, 13.924638175964356, -21.7578550974528, -30.384519386291505, 10.668010012308757, 8.987497838338216, 18.40944455464681, -18.1943208694458, 11.075388272603353, -0.11248752276102701, 1.1160430908203125, -6.8487727801005045, 11.028880151112874, 41.28915252685547, 12.821823342641194, 30.23110720316569, 21.641056251525878, -28.36570841471354, -17.08104248046875, 21.807469685872395], "scaler_scale": [0.0764789246452337, 0.09242073358765782, 0.10123682729202353, 0.06902485859990305, 0.07679816949919943, 0.05145555478109157, 0.022485125202139227, 0.03869300955830296, 0.08381389300447821, 0.0903024811996532, 0.12995554567844184, 0.03794224249698229, 0.056676811097451985, 0.12808446918522567, 0.12878138564732558, 0.07156356079407922, 0.0524686306245026, 0.05882314069185646, 0.09178134445636504, 0.09470230979257997, 0.060148758367754004, 0.12012593611368484, 0.13102958390599204, 0.05040370231129025, 0.1069745371411531, 0.06075932050141679, 0.04431819791636646, 0.08920173246018209, 0.05616499931841819, 0.05113313749903678, 0.056031010231229986, 0.0342261139304048, 0.08912417100262417, 0.11126912750247027, 0.1032049017222063, 0.05441333999021357, 0.06268281251487982, 0.06723198561695931, 0.07602775576799957, 0.14195462372674073, 0.0522386769843897, 0.1020232084461535, 0.08747242928975676, 0.12244903821992242, 0.07680520550564585, 0.11112429746247192, 0.060237338387683664, 0.10251870720694845, 0.09448303736366818, 0.0382496931340979, 0.0795866306939044, 0.0877657142050847, 0.14098792444284813, 0.1263548954275556, 0.07492242293596708, 0.09058508675151425, 0.06172725723161349, 0.060279984548423336, 0.0832103289870288, 0.07155467925255028, 0.05835714018046843, 0.08561829863259715, 0.08319802620118083, 0.026845338108460376, 0.09311462553058135, 0.16439174246625132, 0.18450850309253386, 0.02089951067519595, 0.06949023660912093, 0.14156672758239525, 0.042627006498048244, 0.06439427781547412, 0.09578672711536561, 0.02296080463166656, 0.06661787182757012, 0.06330494729971671, 0.14610577441002962, 0.09728683532042158, 0.06383231024087023, 0.05401225691917516, 0.07264942996209361, 0.07850073779554785, 0.08903620935247628, 0.12038422839885334, 0.08686092658411211, 0.08635963503533176, 0.12243449991874873, 0.03656295139458036, 0.08549427977848946, 0.14375128246595675, 0.12422388218231917, 0.14536588767478137, 0.09523996101757556, 0.07490073642514343, 0.10909629426086087, 0.12785932366159236], "wake_word": "hi sans"}